//Numpy array shape [16, 4]
//Min -0.530717790127
//Max 0.545673251152
//Number of zeros 0

#ifndef W2_H_
#define W2_H_

#ifndef __SYNTHESIS__
model_default_t w2[64];
#else
model_default_t w2[64] = {-0.2278798223, -0.3214403391, 0.0387685895, 0.0671042204, -0.0912785232, 0.3372086287, -0.0074215531, 0.5456732512, 0.2155125737, -0.4103826880, 0.2298426628, 0.1779174209, 0.0791531205, -0.1481551528, -0.0870678723, 0.1424703002, 0.4533094168, 0.1770756245, 0.3653020263, -0.4557511508, -0.2412614822, -0.5307177901, 0.2479798198, 0.2908830643, 0.1970340610, 0.0358516574, 0.2809970975, -0.4957744479, -0.4925434589, 0.2757711411, -0.3585251570, -0.2060146928, -0.2285385132, -0.4376167655, -0.3662393689, 0.2954033613, 0.0938574672, 0.5280151367, 0.4544265270, -0.3925359845, -0.4408448935, 0.1164221764, -0.3528190255, 0.0197749734, 0.5281372070, -0.3551658392, -0.4977356195, 0.1068513393, 0.0689629912, 0.3341922164, 0.0919370651, -0.4347531199, 0.4873684645, -0.2381518185, 0.0578958392, -0.2415513992, -0.4606293738, -0.1210531890, -0.4712476730, -0.5017857552, 0.4643576145, 0.4110258222, -0.0350976586, -0.0329547524};
#endif

#endif
